FANN_FLO_2.1
num_layers=3
learning_rate=0.700000
connection_rate=1.000000
network_type=0
learning_momentum=0.000000
training_algorithm=0
train_error_function=1
train_stop_function=0
cascade_output_change_fraction=0.010000
quickprop_decay=-0.000100
quickprop_mu=1.750000
rprop_increase_factor=1.200000
rprop_decrease_factor=0.500000
rprop_delta_min=0.000000
rprop_delta_max=50.000000
rprop_delta_zero=0.100000
cascade_output_stagnation_epochs=12
cascade_candidate_change_fraction=0.010000
cascade_candidate_stagnation_epochs=12
cascade_max_out_epochs=150
cascade_max_cand_epochs=150
cascade_num_candidate_groups=2
bit_fail_limit=3.49999999999999980000e-001
cascade_candidate_limit=1.00000000000000000000e+003
cascade_weight_multiplier=4.00000000000000020000e-001
cascade_activation_functions_count=10
cascade_activation_functions=3 5 7 8 10 11 14 15 16 17 
cascade_activation_steepnesses_count=4
cascade_activation_steepnesses=2.50000000000000000000e-001 5.00000000000000000000e-001 7.50000000000000000000e-001 1.00000000000000000000e+000 
layer_sizes=11 11 2 
scale_included=0
neurons (num_inputs, activation_function, activation_steepness)=(0, 0, 0.00000000000000000000e+000) (0, 0, 0.00000000000000000000e+000) (0, 0, 0.00000000000000000000e+000) (0, 0, 0.00000000000000000000e+000) (0, 0, 0.00000000000000000000e+000) (0, 0, 0.00000000000000000000e+000) (0, 0, 0.00000000000000000000e+000) (0, 0, 0.00000000000000000000e+000) (0, 0, 0.00000000000000000000e+000) (0, 0, 0.00000000000000000000e+000) (0, 0, 0.00000000000000000000e+000) (11, 5, 1.00000000000000000000e+000) (11, 5, 1.00000000000000000000e+000) (11, 5, 1.00000000000000000000e+000) (11, 5, 1.00000000000000000000e+000) (11, 5, 1.00000000000000000000e+000) (11, 5, 1.00000000000000000000e+000) (11, 5, 1.00000000000000000000e+000) (11, 5, 1.00000000000000000000e+000) (11, 5, 1.00000000000000000000e+000) (11, 5, 1.00000000000000000000e+000) (0, 5, 1.00000000000000000000e+000) (11, 5, 1.00000000000000000000e+000) (0, 5, 1.00000000000000000000e+000) 
connections (connected_to_neuron, weight)=(0, -2.96796825005726310000e-002) (1, -3.05240972270394670000e-002) (2, 1.63551175333919110000e-001) (3, 6.09578677106155760000e-001) (4, -9.31490972966001360000e-001) (5, -1.92189088654600580000e+000) (6, -1.48310489170422310000e+000) (7, 1.17610080731552750000e+000) (8, 2.15922906641412070000e+000) (9, -4.45035618953957770000e-001) (10, 3.30177677718774210000e-001) (0, 1.12879740248976510000e-001) (1, -4.57649495211616550000e-002) (2, 2.85716435074099000000e-002) (3, 6.45691579692100450000e-001) (4, -4.71459146679738370000e-001) (5, -1.48542324467596630000e+000) (6, -3.39799023939710840000e-001) (7, 1.23518224888169750000e+000) (8, 2.05713867877796640000e+000) (9, -3.06594819343690930000e-001) (10, -1.20983763811127780000e-001) (0, 4.84879492587982840000e-002) (1, 5.11830849494319460000e-002) (2, -1.05030657847989780000e-001) (3, -3.43481791981909590000e-001) (4, 4.70502431602549900000e-001) (5, 1.08906445672225560000e+000) (6, 9.62885949110501740000e-001) (7, -5.20102922843653560000e-001) (8, -1.38836443486680210000e+000) (9, 4.37107575575709450000e-001) (10, -2.52618104378190990000e-001) (0, 1.76134367026133210000e-002) (1, 2.66822785280035540000e-002) (2, 4.65620145212159410000e-003) (3, -1.24410874461837550000e-002) (4, 1.11785465927627890000e-001) (5, 2.89153106498059030000e-001) (6, 1.49438511596897580000e-001) (7, -1.64407896671359630000e-001) (8, -4.72024754236690100000e-001) (9, 9.64834512222390310000e-002) (10, -4.26974644429046900000e-002) (0, 3.65689017853083110000e-003) (1, 2.01654844613362340000e-002) (2, -3.66844506057312780000e-002) (3, -1.81291100279802800000e-001) (4, 3.88981616632036900000e-001) (5, 7.82888742819437430000e-001) (6, 3.89208526487036410000e-001) (7, -3.91915661103883210000e-001) (8, -1.04022705673781360000e+000) (9, 3.04876822723526950000e-001) (10, -1.04012311427019800000e-001) (0, -1.05532449876253330000e-001) (1, 2.04913716071744470000e-001) (2, 8.85174468588826970000e-003) (3, 1.19764774548634770000e+000) (4, -7.00227600499318870000e-001) (5, -3.41941182989077810000e+000) (6, -1.86139470628626280000e+000) (7, 2.05267520840699990000e+000) (8, 3.24640745202976170000e+000) (9, -8.01615202872298370000e-001) (10, 2.57629087927099210000e-001) (0, 2.00962186048882410000e-001) (1, 2.87962524997470470000e-002) (2, 2.84816106980763210000e-001) (3, -1.18808233174990610000e+000) (4, -3.50115500615314310000e+000) (5, -1.73826000447119620000e+000) (6, -3.01474475944921010000e+000) (7, 9.76824121246012030000e+000) (8, 2.46301072314100010000e+000) (9, -3.59677217768383530000e+000) (10, 7.66202612514660930000e-001) (0, 1.91620405138449550000e-003) (1, 1.08117115346545380000e-003) (2, 5.40259556945159140000e-003) (3, 5.03739210504253880000e-003) (4, -4.89948179315151390000e-002) (5, -7.41383529917401110000e-002) (6, -3.46298216709647330000e-002) (7, 3.29881252370673660000e-002) (8, 1.09981321207693770000e-001) (9, -6.37315830429505820000e-003) (10, 9.98015860368395290000e-003) (0, 1.90638987059971940000e-002) (1, 3.73633301724710400000e-003) (2, 9.29574470627293060000e-002) (3, 2.43487715080080460000e-001) (4, -3.75021922411018450000e-001) (5, -9.47333852045689980000e-001) (6, -5.65741328251230360000e-001) (7, 4.87616597253444310000e-001) (8, 1.16505583683897700000e+000) (9, -3.49419599155569360000e-001) (10, 1.27469319069775020000e-001) (0, -2.46826888498689590000e-003) (1, 6.47345925909509870000e-003) (2, -1.32330689328265020000e-002) (3, -1.42522264962347870000e-002) (4, 9.58227844988728120000e-002) (5, 2.84634739998411320000e-001) (6, 1.22077119861992180000e-001) (7, -1.49235399566454980000e-001) (8, -4.01015727147017330000e-001) (9, 1.23914970686524030000e-001) (10, -3.33088209023282980000e-002) (11, -1.24488104730839560000e-001) (12, 1.32166838943433420000e-001) (13, 1.04894498860579420000e-001) (14, 1.57864664351632090000e-003) (15, 1.58665317034761380000e-002) (16, -4.02903421394288920000e-002) (17, -1.45236355618954230000e-001) (18, -8.17659557968215020000e-004) (19, -3.53137535928483990000e-002) (20, 1.78325894377451970000e-003) (21, 4.53905540870125080000e-001) 
